t,i,x,y,r,theta,xK,tc,therm,dc
1678695964.7483377, 3.2, -0.0001666867, 0.0001746144, 1.0803945e-07, 131.1375, 0, 0, 0, -0.0
1678695972.7487755, -3.2, -4.238977e-05, 6.86439e-05, 3.2842480000000005e-08, 114.9485, 0, 0, 0, -0.0
1678695981.961873, 3.2, -0.00020690040000000002, 0.00024404334999999998, 1.5325225e-07, 131.8563, 0, 0, 0, -0.3333333333333333
1678695989.9414299, -3.2, -0.00011184980000000001, 0.00012711040000000002, 7.830995e-08, 125.5863, 0, 0, 0, -0.3333333333333333
1678695999.1818244, 3.2, -0.00027270465000000003, 0.00032808895000000003, 2.1127265000000002e-07, 132.8431, 0, 0, 0, -0.6666666666666666
1678696007.1679354, -3.2, -0.00018130985, 0.00018923100000000002, 1.4173540000000001e-07, 129.6902, 0, 0, 0, -0.6666666666666666
1678696016.3747845, 3.2, -0.0003458205, 0.0003719388, 2.5785754999999996e-07, 132.916, 0, 0, 0, -1.0
1678696024.350438, -3.2, -0.0002398025, 0.00025866, 1.881578e-07, 131.1577, 0, 0, 0, -1.0
1678696033.5546882, 3.2, -0.00042259210000000004, 0.00043405945000000003, 2.9260905e-07, 132.5339, 0, 0, 0, -1.3333333333333333
1678696041.5704772, -3.2, -0.00028732780000000004, 0.0003244348, 2.349066e-07, 132.1594, 0, 0, 0, -1.3333333333333333
1678696050.7453156, 3.2, -0.0004993637000000001, 0.0005034885, 3.5330895e-07, 133.6866, 0, 0, 0, -1.6666666666666665
1678696058.7649114, -3.2, -0.00035678785000000003, 0.00040117205000000006, 2.7976305e-07, 131.9092, 0, 0, 0, -1.6666666666666665
1678696067.9592657, 3.2, -0.0005542005, 0.00058388, 4.0376955e-07, 132.948, 0, 0, 0, -2.0
1678696075.9437075, -3.2, -0.00044452685, 0.00048156349999999996, 3.2768410000000003e-07, 133.8347, 0, 0, 0, -2.0
1678696085.1687057, 3.2, -0.0006053815000000001, 0.0006460004999999999, 4.361654e-07, 133.1625, 0, 0, 0, -2.333333333333333
1678696093.1685224, -3.2, -0.0005139869999999999, 0.0005290675000000001, 3.7012660000000005e-07, 133.369, 0, 0, 0, -2.333333333333333
1678696102.3616936, 3.2, -0.0006821535, 0.000708121, 4.8524995e-07, 133.1724, 0, 0, 0, -2.6666666666666665
1678696110.3239663, -3.2, -0.000546889, 0.0005984965, 4.0888775e-07, 133.3058, 0, 0, 0, -2.6666666666666665
1678696119.5400531, 3.2, -0.000755269, 0.0007775499999999999, 5.26587e-07, 133.8554, 0, 0, 0, -3.0
1678696127.5236645, -3.2, -0.0006200050000000001, 0.0006460004999999999, 4.4266340000000007e-07, 132.4872, 0, 0, 0, -3.0
1678696136.751116, 3.2, -0.000810106, 0.0008396705000000001, 5.86013e-07, 134.0982, 0, 0, 0, -3.333333333333333
1678696144.7495222, -3.2, -0.0006784975, 0.000730046, 5.02078e-07, 133.0576, 0, 0, 0, -3.333333333333333
1678696153.9959412, 3.2, -0.0008576314999999999, 0.000898137, 6.208695e-07, 133.9076, 0, 0, 0, -3.6666666666666665
1678696162.0008807, -3.2, -0.0007589249999999999, 0.0007921664999999999, 5.549535e-07, 134.4485, 0, 0, 0, -3.6666666666666665
1678696171.2016914, 3.2, -0.00091978, 0.0009529495000000001, 6.67342e-07, 134.322, 0, 0, 0, -4.0
1678696179.1706805, -3.2, -0.0008247290000000001, 0.000843325, 5.9641e-07, 133.7421, 0, 0, 0, -4.0
1678696188.3987722, 3.2, -0.0009928955, 0.001036995, 7.191095e-07, 133.7463, 0, 0, 0, -4.333333333333333
1678696196.3735178, -3.2, -0.000883222, 0.0009090995, 6.339784999999999e-07, 133.5859, 0, 0, 0, -4.333333333333333
1678696205.5807738, 3.2, -0.001069667, 0.0011173865000000001, 7.695215e-07, 133.7458, 0, 0, 0, -4.666666666666666
1678696213.5629194, -3.2, -0.0009417145, 0.000993145, 6.894849999999999e-07, 134.1231, 0, 0, 0, -4.666666666666666
1678696222.7578313, 3.2, -0.0011318155000000002, 0.001172199, 8.212005000000001e-07, 133.9926, 0, 0, 0, -5.0
1678696230.7535439, -3.2, -0.0010331094999999999, 0.0010479575000000001, 7.177515000000001e-07, 133.9947, 0, 0, 0, -5.0
1678696239.972216, 3.2, -0.0012049315000000002, 0.001219703, 8.625445000000001e-07, 134.0479, 0, 0, 0, -5.333333333333333
1678696247.9421382, -3.2, -0.0010916020000000001, 0.001110078, 7.810235000000001e-07, 134.23, 0, 0, 0, -5.333333333333333
1678696257.1711712, 3.2, -0.0012780475, 0.001289132, 8.974080000000001e-07, 134.5882, 0, 0, 0, -5.666666666666666
1678696265.1904492, -3.2, -0.0011391275000000001, 0.001172199, 8.249815e-07, 134.1802, 0, 0, 0, -5.666666666666666
1678696274.4121425, 3.2, -0.0013255725, 0.001365869, 9.490285e-07, 134.1422, 0, 0, 0, -6.0
1678696282.4171793, -3.2, -0.0012232105, 0.0012598985, 8.742494999999999e-07, 134.0622, 0, 0, 0, -6.0
1678696291.6411817, 3.2, -0.001402344, 0.0014243354999999998, 9.96851e-07, 134.5578, 0, 0, 0, -6.333333333333333
1678696299.6637359, -3.2, -0.001285359, 0.0013329815, 9.258765000000001e-07, 134.1898, 0, 0, 0, -6.333333333333333
1678696308.8684633, 3.2, -0.00147546, 0.001504727, 1.0472899999999998e-06, 134.6468, 0, 0, 0, -6.666666666666666
1678696316.8816895, -3.2, -0.0013584745, 0.0014024105, 9.64596e-07, 134.3933, 0, 0, 0, -6.666666666666666
1678696326.0656817, 3.2, -0.001526641, 0.0015631935, 1.092471e-06, 134.4591, 0, 0, 0, -7.0
1678696334.0734882, -3.2, -0.0014133115000000002, 0.001435298, 1.020216e-06, 134.1258, 0, 0, 0, -7.0
1678696343.2856696, 3.2, -0.0015997570000000003, 0.001639931, 1.149307e-06, 134.0354, 0, 0, 0, -7.333333333333333
1678696351.292189, -3.2, -0.0014791160000000002, 0.0015120355000000003, 1.0485655e-06, 134.1563, 0, 0, 0, -7.333333333333333
1678696360.5482895, 3.2, -0.0016619055000000001, 0.0017057055000000002, 1.1881464999999998e-06, 134.2565, 0, 0, 0, -7.666666666666666
1678696368.5465932, -3.2, -0.0015522315, 0.0015887724999999998, 1.1079565e-06, 134.4655, 0, 0, 0, -7.666666666666666
1678696377.7540007, 3.2, -0.0017240539999999998, 0.0017751345000000002, 1.2372475000000001e-06, 134.6424, 0, 0, 0, -8.0
1678696385.765161, -3.2, -0.0016290035000000001, 0.001672818, 1.1661645000000001e-06, 134.1679, 0, 0, 0, -8.0
1678696394.9738605, 3.2, -0.0018044815000000003, 0.001837255, 1.2927690000000001e-06, 134.4286, 0, 0, 0, -8.333333333333332
1678696403.0062504, -3.2, -0.0016911514999999998, 0.0017276305000000001, 1.1933155000000002e-06, 134.1988, 0, 0, 0, -8.333333333333332
1678696412.208864, 3.2, -0.0018629739999999999, 0.001899376, 1.3354809999999999e-06, 134.2261, 0, 0, 0, -8.666666666666666
1678696420.2065144, -3.2, -0.0017496445, 0.0017787885, 1.255285e-06, 134.4055, 0, 0, 0, -8.666666666666666
1678696429.4077356, 3.2, -0.0019360900000000001, 0.0019797675, 1.3845815e-06, 134.5732, 0, 0, 0, -9.0
1678696437.4233687, -3.2, -0.0018264160000000002, 0.0018518719999999998, 1.285016e-06, 134.1411, 0, 0, 0, -9.0
1678696446.6221552, 3.2, -0.0019982385, 0.0020382340000000003, 1.4336275e-06, 134.3799, 0, 0, 0, -9.333333333333332
1678696454.5976613, -3.2, -0.001899532, 0.0019139925, 1.3405909999999999e-06, 134.4025, 0, 0, 0, -9.333333333333332
1678696463.8100638, 3.2, -0.0020603864999999997, 0.0021076625000000003, 1.4607525000000001e-06, 134.5503, 0, 0, 0, -9.666666666666666
1678696471.7787347, -3.2, -0.0019178109999999997, 0.001972459, 1.3728515e-06, 134.2483, 0, 0, 0, -9.666666666666666
1678696481.0282543, 3.2, -0.0021371585, 0.002158821, 1.5227775000000002e-06, 134.2717, 0, 0, 0, -10.0
1678696489.0463648, -3.2, -0.002016517, 0.0020382340000000003, 1.420685e-06, 134.6391, 0, 0, 0, -10.0
1678696498.268857, 3.2, -0.0022066184999999998, 0.0022392124999999997, 1.5628125e-06, 134.4391, 0, 0, 0, -10.333333333333332
1678696506.2605321, -3.2, -0.0020786655, 0.0021076625000000003, 1.485295e-06, 134.6038, 0, 0, 0, -10.333333333333332
1678696515.4755838, 3.2, -0.002279734, 0.002304987, 1.605498e-06, 134.4104, 0, 0, 0, -10.666666666666666
1678696523.4438126, -3.2, -0.0021188795, 0.002162475, 1.5228885e-06, 134.7126, 0, 0, 0, -10.666666666666666
1678696532.6586404, 3.2, -0.0023309150000000002, 0.0023488370000000003, 1.6572085e-06, 134.6466, 0, 0, 0, -11.0
1678696540.668839, -3.2, -0.0021846835, 0.0022319040000000003, 1.570621e-06, 134.7671, 0, 0, 0, -11.0
1678696549.8810015, 3.2, -0.002389408, 0.0024109574999999998, 1.6998910000000002e-06, 134.4786, 0, 0, 0, -11.333333333333332
1678696557.8771987, -3.2, -0.0022760785, 0.0023196035, 1.6145144999999998e-06, 134.4065, 0, 0, 0, -11.333333333333332
1678696567.092159, 3.2, -0.0024479005, 0.0024986575000000002, 1.7592575e-06, 134.5394, 0, 0, 0, -11.666666666666666
1678696575.0945992, -3.2, -0.002319948, 0.002392687, 1.6610340000000002e-06, 134.6489, 0, 0, 0, -11.666666666666666
1678696584.307707, 3.2, -0.0025210165, 0.0025498154999999997, 1.7928390000000002e-06, 134.549, 0, 0, 0, -12.0
1678696592.2887347, -3.2, -0.0023747845, 0.002414612, 1.6972325000000002e-06, 134.3994, 0, 0, 0, -12.0
