t,i,x,y,r,theta,xK,tc,therm,dc
1678589786.5184884, 3.2, 7.825135e-05, -4.4634935000000004e-05, 3.227398e-08, 325.5062, 0, 0, 0, 0.0
1678589792.0058973, -3.2, 0.00014405560000000002, -8.093380000000001e-06, 7.388905e-08, 359.7029, 0, 0, 0, 0.0
1678589798.725646, 3.2, 3.438185e-05, -3.0018315000000005e-05, 2.4406365000000004e-08, 287.2239, 0, 0, 0, 0.16216216216216217
1678589804.197738, -3.2, 0.00011846505000000002, -1.540169e-05, 5.9523050000000006e-08, 354.3368, 0, 0, 0, 0.16216216216216217
1678589810.9233594, 3.2, 1.4797285e-06, -5.55974e-05, 3.079351000000001e-08, 252.078, 0, 0, 0, 0.32432432432432434
1678589816.4116528, -3.2, 5.26608e-05, -2.2710004999999998e-05, 4.426274e-08, 348.4051, 0, 0, 0, 0.32432432432432434
1678589823.1139266, 3.2, -3.1422395e-05, -6.290569999999999e-05, 3.792763e-08, 233.7967, 0, 0, 0, 0.4864864864864865
1678589828.580034, -3.2, 3.072606e-05, -1.1747535000000001e-05, 2.9445840000000003e-08, 331.9412, 0, 0, 0, 0.4864864864864865
1678589835.281164, 3.2, -6.066875e-05, -8.11765e-05, 5.2738450000000003e-08, 222.8964, 0, 0, 0, 0.6486486486486487
1678589840.7605705, -3.2, 1.6102894999999998e-05, -3.7326625e-05, 2.30547e-08, 315.5972, 0, 0, 0, 0.6486486486486487
1678589847.486653, 3.2, -8.625924999999999e-05, -8.11765e-05, 6.217460000000002e-08, 218.8224, 0, 0, 0, 0.8108108108108109
1678589852.9462178, -3.2, -2.4110815e-05, -4.8289090000000004e-05, 2.2343975e-08, 262.5561, 0, 0, 0, 0.8108108108108109
1678589859.633418, 3.2, -0.0001155056, -9.213894999999999e-05, 7.53144e-08, 213.8514, 0, 0, 0, 0.972972972972973
1678589865.0993083, -3.2, -4.6045564999999996e-05, -5.9251550000000004e-05, 3.2869249999999995e-08, 236.8265, 0, 0, 0, 0.972972972972973
1678589871.815472, 3.2, -0.00014109615, -9.944725000000002e-05, 9.14123e-08, 211.5984, 0, 0, 0, 1.135135135135135
1678589877.295451, -3.2, -7.16361e-05, -7.021405e-05, 4.5223014999999996e-08, 224.3611, 0, 0, 0, 1.135135135135135
1678589884.0294735, 3.2, -0.00014475194999999998, -9.944725000000002e-05, 1.052022e-07, 211.8604, 0, 0, 0, 1.2972972972972974
1678589889.5039477, -3.2, -9.722665e-05, -7.386819999999999e-05, 5.7041050000000004e-08, 220.5751, 0, 0, 0, 1.2972972972972974
1678589896.2113004, 3.2, -0.00017765405, -0.00011406389999999999, 1.1973355e-07, 208.7906, 0, 0, 0, 1.4594594594594597
1678589901.695593, -3.2, -0.00012647300000000002, -8.11765e-05, 7.009985e-08, 215.447, 0, 0, 0, 1.4594594594594597
1678589908.4126756, 3.2, -0.0002105562, -0.00012502635000000002, 1.3521229999999998e-07, 207.8987, 0, 0, 0, 1.6216216216216217
1678589913.9095309, -3.2, -0.00014475194999999998, -9.213894999999999e-05, 8.42581e-08, 213.1455, 0, 0, 0, 1.6216216216216217
1678589920.6090844, 3.2, -0.00025442565, -0.00013233465, 1.515588e-07, 206.1908, 0, 0, 0, 1.7837837837837838
1678589926.104095, -3.2, -0.0001666867, -9.944725000000002e-05, 9.704924999999999e-08, 211.7382, 0, 0, 0, 1.7837837837837838
1678589932.804039, 3.2, -0.0002800162, -0.00014329715000000002, 1.6724865e-07, 204.5574, 0, 0, 0, 1.945945945945946
1678589938.2751572, -3.2, -0.000195933, -0.0001067556, 1.108612e-07, 209.0398, 0, 0, 0, 1.945945945945946
1678589945.0138874, 3.2, -0.00031657414999999996, -0.00015060545000000002, 1.828396e-07, 203.6944, 0, 0, 0, 2.1081081081081083
1678589950.5037003, -3.2, -0.0002507699, -0.00011771805, 1.2621045e-07, 206.8644, 0, 0, 0, 2.1081081081081083
1678589957.1963706, 3.2, -0.00034947630000000003, -0.0001542596, 1.9916865e-07, 202.6768, 0, 0, 0, 2.27027027027027
1678589962.6801732, -3.2, -0.0002800162, -0.0001213722, 1.4259845e-07, 205.2251, 0, 0, 0, 2.27027027027027
1678589969.3922923, 3.2, -0.00038237840000000003, -0.00016156789999999997, 2.0755565000000004e-07, 202.7109, 0, 0, 0, 2.4324324324324325
1678589974.861267, -3.2, -0.00030560674999999997, -0.00012502635000000002, 1.5894200000000002e-07, 204.4002, 0, 0, 0, 2.4324324324324325
1678589981.5325272, 3.2, -0.00040796895, -0.0001725304, 2.2484695e-07, 202.9893, 0, 0, 0, 2.5945945945945947
1678589987.0199733, -3.2, -0.0003385089, -0.00013598885, 1.7395415e-07, 202.7759, 0, 0, 0, 2.5945945945945947
1678589993.720449, 3.2, -0.00043721525000000005, -0.0001798387, 2.3568955e-07, 201.948, 0, 0, 0, 2.756756756756757
1678589999.1896517, -3.2, -0.00036775524999999997, -0.00013233465, 1.854796e-07, 202.7238, 0, 0, 0, 2.756756756756757
1678590005.892083, 3.2, -0.00045183845, -0.000187147, 2.5029700000000003e-07, 202.63, 0, 0, 0, 2.9189189189189193
1678590011.3771832, -3.2, -0.00038969, -0.00015791375, 2.034772e-07, 202.2704, 0, 0, 0, 2.9189189189189193
1678590018.085827, 3.2, -0.00048108475, -0.0001981095, 2.6183045e-07, 201.9307, 0, 0, 0, 3.081081081081081
1678590023.56815, -3.2, -0.00041162474999999996, -0.00015791375, 2.1430960000000002e-07, 202.1449, 0, 0, 0, 3.081081081081081
1678590030.2847445, 3.2, -0.00047742895, -0.00020907195000000002, 2.771287e-07, 200.9426, 0, 0, 0, 3.2432432432432434
1678590035.7663536, -3.2, -0.00042990370000000006, -0.0001725304, 2.2754300000000001e-07, 202.2086, 0, 0, 0, 3.2432432432432434
1678590042.4955237, 3.2, -0.0005212985, -0.0002200344, 2.957702e-07, 200.9215, 0, 0, 0, 3.4054054054054057
1678590047.9800699, -3.2, -0.00045549425, -0.00017618455, 2.3976345e-07, 201.8637, 0, 0, 0, 3.4054054054054057
1678590054.719527, 3.2, -0.0005578565, -0.00022368855000000002, 3.1242874999999996e-07, 201.2191, 0, 0, 0, 3.5675675675675675
1678590060.2328024, -3.2, -0.00047742895, -0.00019080115, 2.5062725e-07, 201.0236, 0, 0, 0, 3.5675675675675675
1678590066.9264772, 3.2, -0.0006053815000000001, -0.00022734270000000003, 3.2739605e-07, 200.5451, 0, 0, 0, 3.72972972972973
1678590072.416225, -3.2, -0.000532266, -0.0001944553, 2.6664024999999996e-07, 200.7723, 0, 0, 0, 3.72972972972973
1678590079.0940497, 3.2, -0.0006273165000000001, -0.00023099690000000003, 3.3894765e-07, 200.4733, 0, 0, 0, 3.891891891891892
1678590084.5625827, -3.2, -0.0005578565, -0.0001944553, 2.829033e-07, 200.5447, 0, 0, 0, 3.891891891891892
1678590091.2714977, 3.2, -0.0006455955000000001, -0.00023099690000000003, 3.492363e-07, 200.4061, 0, 0, 0, 4.054054054054054
1678590096.730598, -3.2, -0.000579791, -0.00020907195000000002, 2.9661100000000003e-07, 200.5449, 0, 0, 0, 4.054054054054054
1678590103.4709833, 3.2, -0.0006784975, -0.0002529218, 3.6829015000000004e-07, 200.3133, 0, 0, 0, 4.216216216216217
1678590108.9416287, -3.2, -0.0006126935, -0.00021638025, 3.162866e-07, 200.1166, 0, 0, 0, 4.216216216216217
1678590115.6804657, 3.2, -0.000718711, -0.00026023010000000005, 3.8046815000000003e-07, 199.3875, 0, 0, 0, 4.378378378378379
1678590121.182821, -3.2, -0.0006236604999999999, -0.0002200344, 3.2784245e-07, 200.0567, 0, 0, 0, 4.378378378378379
1678590127.877691, 3.2, -0.0007077440000000001, -0.0002711926, 3.9202399999999994e-07, 200.7011, 0, 0, 0, 4.54054054054054
1678590133.387779, -3.2, -0.0006565625, -0.00023099690000000003, 3.4174095e-07, 199.7909, 0, 0, 0, 4.54054054054054
1678590140.0990899, 3.2, -0.000740646, -0.00028215505, 4.059224e-07, 199.9745, 0, 0, 0, 4.702702702702703
1678590145.5768025, -3.2, -0.0006784975, -0.00023465105000000002, 3.5318410000000004e-07, 200.0996, 0, 0, 0, 4.702702702702703
1678590152.260023, 3.2, -0.0007698925, -0.00028946335, 4.2497400000000003e-07, 199.4468, 0, 0, 0, 4.864864864864865
1678590157.7457526, -3.2, -0.0007077440000000001, -0.0002529218, 3.693993e-07, 199.5895, 0, 0, 0, 4.864864864864865
1678590164.454844, 3.2, -0.0008027945, -0.00028946335, 4.3530175e-07, 199.7908, 0, 0, 0, 5.027027027027027
1678590169.9433398, -3.2, -0.000755269, -0.00026023010000000005, 3.845286e-07, 199.3875, 0, 0, 0, 5.027027027027027
1678590176.641126, 3.2, -0.0008466639999999999, -0.00030042584999999996, 4.5558529999999996e-07, 199.5224, 0, 0, 0, 5.1891891891891895
1678590182.0880275, -3.2, -0.000777204, -0.00026023010000000005, 3.9265119999999997e-07, 199.5214, 0, 0, 0, 5.1891891891891895
1678590188.8154962, 3.2, -0.0008759105000000001, -0.00030773415, 4.68253e-07, 199.2834, 0, 0, 0, 5.351351351351352
1678590194.3013616, -3.2, -0.0008027945, -0.00027850090000000003, 4.1157965e-07, 199.7328, 0, 0, 0, 5.351351351351352
1678590201.0074546, 3.2, -0.0008978450000000001, -0.00032235075000000004, 4.832613e-07, 199.1815, 0, 0, 0, 5.513513513513514
1678590206.5092926, -3.2, -0.000813762, -0.00028215505, 4.2141299999999994e-07, 199.6794, 0, 0, 0, 5.513513513513514
1678590213.2249076, 3.2, -0.000930747, -0.0003260049, 4.982733500000001e-07, 199.164, 0, 0, 0, 5.675675675675676
1678590218.719193, -3.2, -0.0008466639999999999, -0.0002931175, 4.4220409999999997e-07, 199.3401, 0, 0, 0, 5.675675675675676
1678590225.4317353, 3.2, -0.0009563374999999999, -0.00033696739999999995, 5.087079999999999e-07, 199.0129, 0, 0, 0, 5.837837837837839
1678590230.917358, -3.2, -0.0008722545, -0.00029677170000000006, 4.543642e-07, 198.7947, 0, 0, 0, 5.837837837837839
1678590237.6135108, 3.2, -0.0009490260000000001, -0.00034062155, 5.260459999999999e-07, 199.189, 0, 0, 0, 6.0
1678590243.1050408, -3.2, -0.0009015010000000001, -0.00030773415, 4.7342825000000003e-07, 198.8529, 0, 0, 0, 6.0
1678590249.7940729, 3.2, -0.0009928955, -0.000351584, 5.393299999999999e-07, 198.8609, 0, 0, 0, 6.162162162162162
1678590255.2823844, -3.2, -0.0009270915, -0.00031504245, 4.8671405e-07, 198.7687, 0, 0, 0, 6.162162162162162
1678590261.993731, 3.2, -0.0010148305, -0.00035889229999999997, 5.502905e-07, 199.0941, 0, 0, 0, 6.324324324324325
1678590267.4921389, -3.2, -0.000952682, -0.00033696739999999995, 4.970900000000001e-07, 199.095, 0, 0, 0, 6.324324324324325
1678590274.1994212, 3.2, -0.0010440765, -0.00036254645000000004, 5.618215e-07, 199.0737, 0, 0, 0, 6.486486486486487
1678590279.6946926, -3.2, -0.0009746164999999999, -0.00032965905, 5.132889999999999e-07, 198.8192, 0, 0, 0, 6.486486486486487
1678590286.3970814, 3.2, -0.0010842905, -0.00037716309999999995, 5.837900000000001e-07, 199.3337, 0, 0, 0, 6.648648648648649
1678590291.8728373, -3.2, -0.0010294535, -0.00033696739999999995, 5.259900000000001e-07, 198.2397, 0, 0, 0, 6.648648648648649
1678590298.568469, 3.2, -0.0011135365, -0.00038081725, 5.9535e-07, 198.6524, 0, 0, 0, 6.810810810810811
1678590304.0436015, -3.2, -0.0010477325, -0.00034792985, 5.404595e-07, 198.6767, 0, 0, 0, 6.810810810810811
1678590310.749351, 3.2, -0.0011500945000000001, -0.0003917797, 6.1269e-07, 199.1303, 0, 0, 0, 6.972972972972974
1678590316.2347243, -3.2, -0.001087946, -0.00036254645000000004, 5.514274999999999e-07, 198.7295, 0, 0, 0, 6.972972972972974
1678590322.9237874, 3.2, -0.0011829965, -0.0004027422, 6.27715e-07, 198.5354, 0, 0, 0, 7.135135135135135
1678590328.3957486, -3.2, -0.0011025695, -0.00036254645000000004, 5.635785e-07, 198.6068, 0, 0, 0, 7.135135135135135
1678590335.0879645, 3.2, -0.0012049315000000002, -0.00040639635, 6.392750000000001e-07, 198.4815, 0, 0, 0, 7.297297297297297
1678590340.5879517, -3.2, -0.001124504, -0.00037350895000000004, 5.84377e-07, 198.943, 0, 0, 0, 7.297297297297297
1678590347.304563, 3.2, -0.0012378335, -0.00042101294999999996, 6.566155e-07, 198.3793, 0, 0, 0, 7.45945945945946
1678590352.7838407, -3.2, -0.001157406, -0.0003844714, 5.999869999999999e-07, 198.2084, 0, 0, 0, 7.45945945945946
1678590359.4863114, 3.2, -0.0012634240000000002, -0.00042101294999999996, 6.710675e-07, 198.4791, 0, 0, 0, 7.621621621621622
1678590364.9613953, -3.2, -0.0011829965, -0.00038812555, 6.155765000000001e-07, 198.4835, 0, 0, 0, 7.621621621621622
1678590371.6539803, 3.2, -0.001299982, -0.0004429379, 6.86672e-07, 198.1884, 0, 0, 0, 7.783783783783784
1678590377.1476862, -3.2, -0.001212243, -0.00039908805000000004, 6.32917e-07, 198.1146, 0, 0, 0, 7.783783783783784
1678590383.8712256, 3.2, -0.0012963265, -0.0004173588, 6.955195e-07, 197.4767, 0, 0, 0, 7.9459459459459465
1678590389.335371, -3.2, -0.0012414894999999999, -0.00038081725, 6.45261e-07, 197.3029, 0, 0, 0, 7.9459459459459465
1678590396.0337791, 3.2, -0.0013292285, -0.00042101294999999996, 7.076180000000001e-07, 197.4478, 0, 0, 0, 8.108108108108109
1678590401.5380487, -3.2, -0.0012670799999999999, -0.0003917797, 6.591010000000001e-07, 197.0183, 0, 0, 0, 8.108108108108109
1678590408.237987, 3.2, -0.0013511629999999998, -0.00042832125000000004, 7.22667e-07, 197.2384, 0, 0, 0, 8.27027027027027
1678590413.7174737, -3.2, -0.0012890145, -0.0003917797, 6.68374e-07, 197.3417, 0, 0, 0, 8.27027027027027
1678590420.4550695, 3.2, -0.0013877210000000002, -0.00043928375, 7.347685e-07, 197.1729, 0, 0, 0, 8.432432432432433
1678590425.9451122, -3.2, -0.0013109495, -0.0004027422, 6.816784999999999e-07, 197.4148, 0, 0, 0, 8.432432432432433
1678590432.6495452, 3.2, -0.001427935, -0.0004356296, 7.550525e-07, 197.2841, 0, 0, 0, 8.594594594594595
1678590438.1506002, -3.2, -0.0013657865, -0.0004100505, 6.955195e-07, 197.1001, 0, 0, 0, 8.594594594594595
1678590444.862608, 3.2, -0.0014462135000000002, -0.00045024619999999997, 7.695665e-07, 196.9191, 0, 0, 0, 8.756756756756758
1678590450.3607318, -3.2, -0.0013438515, -0.00042101294999999996, 6.978060000000001e-07, 197.0122, 0, 0, 0, 8.756756756756758
1678590457.0529904, 3.2, -0.0014900830000000001, -0.0004648628, 7.88649e-07, 197.3345, 0, 0, 0, 8.91891891891892
1678590462.5438073, -3.2, -0.001409656, -0.0004246671, 7.237580000000001e-07, 197.2384, 0, 0, 0, 8.91891891891892
1678590469.281075, 3.2, -0.0015229855000000003, -0.0004648628, 7.996725000000001e-07, 197.1862, 0, 0, 0, 9.08108108108108
1678590474.7518835, -3.2, -0.001438902, -0.00043197540000000005, 7.447055e-07, 196.9132, 0, 0, 0, 9.08108108108108
1678590481.457201, 3.2, -0.0015485759999999999, -0.0004758253, 8.135105e-07, 197.0048, 0, 0, 0, 9.243243243243244
1678590486.9276671, -3.2, -0.001457181, -0.00044659205000000007, 7.55907e-07, 197.0691, 0, 0, 0, 9.243243243243244
1678590493.6379871, 3.2, -0.0015705105, -0.00048313360000000005, 8.19825e-07, 197.062, 0, 0, 0, 9.405405405405405
1678590499.158209, -3.2, -0.0014864275, -0.0004429379, 7.685055000000001e-07, 196.5797, 0, 0, 0, 9.405405405405405
1678590505.8630977, 3.2, -0.001566855, -0.0004904419, 8.360900000000002e-07, 197.2831, 0, 0, 0, 9.567567567567568
1678590511.3700163, -3.2, -0.001508362, -0.00045755449999999994, 7.840885e-07, 196.8247, 0, 0, 0, 9.567567567567568
1678590518.0761454, 3.2, -0.0015961010000000002, -0.0004977502, 8.493945e-07, 196.8732, 0, 0, 0, 9.72972972972973
1678590523.577729, -3.2, -0.0015412645, -0.0004648628, 7.979239999999999e-07, 196.8099, 0, 0, 0, 9.72972972972973
1678590530.3109467, 3.2, -0.0016290035000000001, -0.0005050585, 8.667290000000001e-07, 197.1259, 0, 0, 0, 9.891891891891893
1678590535.7934885, -3.2, -0.0015558875000000001, -0.00046851700000000005, 8.06147e-07, 197.0326, 0, 0, 0, 9.891891891891893
1678590542.5002136, 3.2, -0.001654594, -0.0005087125000000001, 8.747889999999999e-07, 196.9492, 0, 0, 0, 10.054054054054054
1678590547.9978757, -3.2, -0.0016034125, -0.00047947944999999993, 8.212045e-07, 196.9775, 0, 0, 0, 10.054054054054054
1678590554.7319484, 3.2, -0.001672873, -0.000519675, 8.886294999999999e-07, 197.0124, 0, 0, 0, 10.216216216216218
1678590560.236172, -3.2, -0.0016107245, -0.00048313360000000005, 8.320605e-07, 196.6724, 0, 0, 0, 10.216216216216218
1678590566.9382613, 3.2, -0.0017021189999999998, -0.0005306375, 8.956195000000001e-07, 196.7298, 0, 0, 0, 10.378378378378379
1678590572.4213824, -3.2, -0.0016290035000000001, -0.0004904419, 8.413375e-07, 196.6128, 0, 0, 0, 10.378378378378379
1678590579.1224995, 3.2, -0.0017240539999999998, -0.000512367, 9.013980000000001e-07, 196.8518, 0, 0, 0, 10.54054054054054
1678590584.5977278, -3.2, -0.0016399705, -0.00049409605, 8.53424e-07, 196.8021, 0, 0, 0, 10.54054054054054
1678590591.2986765, 3.2, -0.001775235, -0.0005415999999999999, 9.28007e-07, 196.9663, 0, 0, 0, 10.702702702702704
1678590596.814174, -3.2, -0.001672873, -0.0005050585, 8.616449999999999e-07, 196.8692, 0, 0, 0, 10.702702702702704
1678590603.5143197, 3.2, -0.0017715790000000001, -0.0005415999999999999, 9.402530000000001e-07, 196.9517, 0, 0, 0, 10.864864864864865
1678590609.0034, -3.2, -0.0017021189999999998, -0.0005050585, 8.772260000000001e-07, 196.9685, 0, 0, 0, 10.864864864864865
1678590615.7104063, 3.2, -0.0018008255, -0.000563525, 9.586465e-07, 196.9376, 0, 0, 0, 11.027027027027028
1678590621.2071128, -3.2, -0.0017203980000000002, -0.000519675, 8.963095e-07, 196.6963, 0, 0, 0, 11.027027027027028
1678590627.8936682, 3.2, -0.0018337275, -0.000567179, 9.696705e-07, 196.9642, 0, 0, 0, 11.18918918918919
1678590633.4012105, -3.2, -0.001756956, -0.0005269835, 9.136420000000001e-07, 196.729, 0, 0, 0, 11.18918918918919
1678590640.1197886, 3.2, -0.0018556625, -0.0005781415, 9.835075e-07, 196.8795, 0, 0, 0, 11.351351351351353
1678590645.601062, -3.2, -0.0018044815000000003, -0.0005415999999999999, 9.269475e-07, 196.5659, 0, 0, 0, 11.351351351351353
1678590652.3364425, 3.2, -0.001899532, -0.0005854500000000001, 9.9803e-07, 196.867, 0, 0, 0, 11.513513513513514
1678590657.8425508, -3.2, -0.0018337275, -0.000545254, 9.397284999999999e-07, 196.7387, 0, 0, 0, 11.513513513513514
1678590664.5519652, 3.2, -0.0019287784999999999, -0.000589104, 1.0130849999999999e-06, 197.053, 0, 0, 0, 11.675675675675677
1678590670.0269547, -3.2, -0.0018483510000000002, -0.0005562165, 9.535585000000001e-07, 196.7276, 0, 0, 0, 11.675675675675677
1678590676.7422173, 3.2, -0.0019507130000000002, -0.0005964125000000001, 1.0244925e-06, 196.9109, 0, 0, 0, 11.837837837837839
1678590682.224373, -3.2, -0.0018702855000000001, -0.000567179, 9.679215e-07, 196.613, 0, 0, 0, 11.837837837837839
1678590688.9446387, 3.2, -0.001983615, -0.0006037205, 1.041291e-06, 196.8985, 0, 0, 0, 12.0
1678590694.4355166, -3.2, -0.001895876, -0.0005708335, 9.852559999999998e-07, 196.4825, 0, 0, 0, 12.0
